{
    "round_squareShape": {
        "degree": 3,
        "form": 2,
        "cv_positions": [
            [
                0.3999999761581421,
                -2.220446049250401e-16,
                1.0000000000000395
            ],
            [
                1.0,
                -2.166562260415783e-16,
                1.0
            ],
            [
                1.0,
                -2.8670515152658515e-16,
                0.3999999761581421
            ],
            [
                1.0,
                2.868859548589896e-16,
                -0.3999999761581421
            ],
            [
                1.0,
                2.049755310219929e-16,
                -1.0
            ],
            [
                0.3999999761581421,
                2.2547955060322414e-16,
                -1.0
            ],
            [
                -0.3999999761581421,
                2.2537389611530944e-16,
                -1.0
            ],
            [
                -1.0,
                2.0529249448572853e-16,
                -1.0
            ],
            [
                -1.0,
                2.8572375549196684e-16,
                -0.3999999761581421
            ],
            [
                -1.0,
                -2.823733175222387e-16,
                0.3999999761581421
            ],
            [
                -1.0,
                -2.4215417579076723e-16,
                1.0
            ],
            [
                -0.3999999761581421,
                -2.2204460492503155e-16,
                1.0
            ],
            [
                0.3999999761581421,
                -2.220446049250401e-16,
                1.0000000000000395
            ],
            [
                1.0,
                -2.166562260415783e-16,
                1.0
            ],
            [
                1.0,
                -2.8670515152658515e-16,
                0.3999999761581421
            ]
        ],
        "cv_weights": [
            1.0,
            1.0,
            1.0,
            1.0,
            1.0,
            1.0,
            1.0,
            1.0,
            1.0,
            1.0,
            1.0,
            1.0,
            1.0,
            1.0,
            1.0
        ],
        "knots": [
            -2.0,
            -1.0,
            0.0,
            1.0,
            2.0,
            3.0,
            4.0,
            5.0,
            6.0,
            7.0,
            8.0,
            9.0,
            10.0,
            11.0,
            12.0,
            13.0,
            14.0
        ],
        "draw_on_top": false
    }
}