{
    "triangleShape": {
        "degree": 3,
        "form": 2,
        "cv_positions": [
            [
                0.08118973672389984,
                5.75984073447148e-17,
                -0.859375
            ],
            [
                -1.5124160768149624e-07,
                6.304930626369407e-17,
                -0.908203125
            ],
            [
                -0.08119002729654312,
                5.759840734471488e-17,
                -0.859375
            ],
            [
                -0.1353166103363037,
                4.218822053073095e-17,
                -0.765625
            ],
            [
                -0.7307089567184448,
                1.9483307119032285e-17,
                0.26562505960464483
            ],
            [
                -0.7848355174064636,
                -6.590447093835562e-18,
                0.3593750596046448
            ],
            [
                -0.7865269184112549,
                -3.1524653131847004e-17,
                0.4541015923023224
            ],
            [
                -0.7036455869674683,
                -5.1007960250879295e-17,
                0.5
            ],
            [
                -0.5953924655914307,
                -6.167152764976319e-17,
                0.5
            ],
            [
                0.5953924655914307,
                -6.167152764976324e-17,
                0.4999999403953552
            ],
            [
                0.7036457061767578,
                -5.100796025087931e-17,
                0.4999999403953552
            ],
            [
                0.7865270376205444,
                -3.152465313184704e-17,
                0.4541015028953552
            ],
            [
                0.7848355174064636,
                -6.59044709383561e-18,
                0.35937491059303284
            ],
            [
                0.7307088971138,
                1.948330711903223e-17,
                0.2656249105930329
            ],
            [
                0.13531634211540222,
                4.218822053073091e-17,
                -0.765625
            ],
            [
                0.08118973672389984,
                5.75984073447148e-17,
                -0.859375
            ],
            [
                -1.5124160768149624e-07,
                6.304930626369407e-17,
                -0.908203125
            ],
            [
                -0.08119002729654312,
                5.759840734471488e-17,
                -0.859375
            ]
        ],
        "cv_weights": [
            1.0,
            1.0,
            1.0,
            1.0,
            1.0,
            1.0,
            1.0,
            1.0,
            1.0,
            1.0,
            1.0,
            1.0,
            1.0,
            1.0,
            1.0,
            1.0,
            1.0,
            1.0
        ],
        "knots": [
            -2.0,
            -1.0,
            0.0,
            1.0,
            2.0,
            3.0,
            4.0,
            5.0,
            6.0,
            7.0,
            8.0,
            9.0,
            10.0,
            11.0,
            12.0,
            13.0,
            14.0,
            15.0,
            16.0,
            17.0
        ],
        "draw_on_top": false
    }
}