{
    "diamondShape": {
        "degree": 1,
        "form": 0,
        "cv_positions": [
            [
                -1.4142135381698608,
                -2.220446049250313e-16,
                0.0
            ],
            [
                2.275957200481571e-15,
                1.4142135381698608,
                0.0
            ],
            [
                0.0,
                -2.220446049250313e-16,
                1.4142135381698608
            ],
            [
                1.4142135381698608,
                2.220446049250313e-16,
                0.0
            ],
            [
                -2.275957200481571e-15,
                -1.4142135381698608,
                0.0
            ],
            [
                0.0,
                -2.220446049250313e-16,
                1.4142135381698608
            ],
            [
                -1.4142135381698608,
                -2.220446049250313e-16,
                0.0
            ],
            [
                -2.275957200481571e-15,
                -1.4142135381698608,
                0.0
            ],
            [
                0.0,
                2.220446049250313e-16,
                -1.4142135381698608
            ],
            [
                1.4142135381698608,
                2.220446049250313e-16,
                0.0
            ],
            [
                2.275957200481571e-15,
                1.4142135381698608,
                0.0
            ],
            [
                0.0,
                2.220446049250313e-16,
                -1.4142135381698608
            ],
            [
                -1.4142135381698608,
                -2.220446049250313e-16,
                0.0
            ]
        ],
        "cv_weights": [
            1.0,
            1.0,
            1.0,
            1.0,
            1.0,
            1.0,
            1.0,
            1.0,
            1.0,
            1.0,
            1.0,
            1.0,
            1.0
        ],
        "knots": [
            0.0,
            1.0,
            2.0,
            3.0,
            4.0,
            5.0,
            6.0,
            7.0,
            8.0,
            9.0,
            10.0,
            11.0,
            12.0
        ],
        "draw_on_top": false
    }
}