{
    "hexagonShape": {
        "degree": 2,
        "form": 2,
        "cv_positions": [
            [
                -0.5625,
                0.0,
                -0.7577722072601318
            ],
            [
                -0.5000000596046448,
                0.0,
                -0.8660253882408142
            ],
            [
                -0.3750000596046448,
                0.0,
                -0.866025447845459
            ],
            [
                0.3749999701976776,
                0.0,
                -0.866025447845459
            ],
            [
                0.4999999701976776,
                0.0,
                -0.866025447845459
            ],
            [
                0.5625,
                0.0,
                -0.7577722668647766
            ],
            [
                0.9375,
                0.0,
                -0.10825318098068237
            ],
            [
                1.0,
                0.0,
                0.0
            ],
            [
                0.9375,
                0.0,
                0.10825318098068237
            ],
            [
                0.5625,
                0.0,
                0.7577722668647766
            ],
            [
                0.4999999701976776,
                0.0,
                0.866025447845459
            ],
            [
                0.3749999701976776,
                0.0,
                0.866025447845459
            ],
            [
                -0.3750000596046448,
                0.0,
                0.866025447845459
            ],
            [
                -0.5000000596046448,
                0.0,
                0.8660253882408142
            ],
            [
                -0.5625,
                0.0,
                0.7577722072601318
            ],
            [
                -0.9375,
                0.0,
                0.10825303941965103
            ],
            [
                -1.0,
                0.0,
                -1.5099580252808664e-07
            ],
            [
                -0.9375,
                0.0,
                -0.10825330764055252
            ],
            [
                -0.5625,
                0.0,
                -0.7577722072601318
            ],
            [
                -0.5000000596046448,
                0.0,
                -0.8660253882408142
            ]
        ],
        "cv_weights": [
            1.0,
            1.0,
            1.0,
            1.0,
            1.0,
            1.0,
            1.0,
            1.0,
            1.0,
            1.0,
            1.0,
            1.0,
            1.0,
            1.0,
            1.0,
            1.0,
            1.0,
            1.0,
            1.0,
            1.0
        ],
        "knots": [
            -1.0,
            0.0,
            1.0,
            2.0,
            3.0,
            4.0,
            5.0,
            6.0,
            7.0,
            8.0,
            9.0,
            10.0,
            11.0,
            12.0,
            13.0,
            14.0,
            15.0,
            16.0,
            17.0,
            18.0,
            19.0
        ],
        "draw_on_top": false
    }
}