{
    "nurbsCircleShape1": {
        "degree": 3,
        "form": 2,
        "cv_positions": [
            [
                0.783611624891225,
                4.798237340988468e-17,
                -0.7836116248912238
            ],
            [
                -1.2643170607829326e-16,
                6.785732323110913e-17,
                -1.108194187554388
            ],
            [
                -0.7836116248912243,
                4.798237340988471e-17,
                -0.7836116248912243
            ],
            [
                -1.108194187554388,
                1.966335461618786e-32,
                -3.21126950723723e-16
            ],
            [
                -0.7836116248912245,
                -4.7982373409884694e-17,
                0.783611624891224
            ],
            [
                -3.3392053635905195e-16,
                -6.785732323110915e-17,
                1.1081941875543881
            ],
            [
                0.7836116248912238,
                -4.798237340988472e-17,
                0.7836116248912244
            ],
            [
                1.108194187554388,
                -3.644630067904792e-32,
                5.952132599280585e-16
            ],
            [
                0.783611624891225,
                4.798237340988468e-17,
                -0.7836116248912238
            ],
            [
                -1.2643170607829326e-16,
                6.785732323110913e-17,
                -1.108194187554388
            ],
            [
                -0.7836116248912243,
                4.798237340988471e-17,
                -0.7836116248912243
            ]
        ],
        "cv_weights": [
            1.0,
            1.0,
            1.0,
            1.0,
            1.0,
            1.0,
            1.0,
            1.0,
            1.0,
            1.0,
            1.0
        ],
        "knots": [
            -2.0,
            -1.0,
            0.0,
            1.0,
            2.0,
            3.0,
            4.0,
            5.0,
            6.0,
            7.0,
            8.0,
            9.0,
            10.0
        ]
    },
    "nurbsCircleShape2": {
        "degree": 3,
        "form": 2,
        "cv_positions": [
            [
                0.783611624891225,
                -0.7836116248912238,
                3.0001109391738255e-16
            ],
            [
                -1.2643170607829326e-16,
                -1.108194187554388,
                4.2427975788035107e-16
            ],
            [
                -0.7836116248912243,
                -0.7836116248912243,
                3.0001109391738274e-16
            ],
            [
                -1.108194187554388,
                -3.21126950723723e-16,
                1.2294565919227027e-31
            ],
            [
                -0.7836116248912245,
                0.783611624891224,
                -3.0001109391738264e-16
            ],
            [
                -3.3392053635905195e-16,
                1.1081941875543881,
                -4.2427975788035117e-16
            ],
            [
                0.7836116248912238,
                0.7836116248912244,
                -3.000110939173828e-16
            ],
            [
                1.108194187554388,
                5.952132599280585e-16,
                -2.278814856146835e-31
            ],
            [
                0.783611624891225,
                -0.7836116248912238,
                3.0001109391738255e-16
            ],
            [
                -1.2643170607829326e-16,
                -1.108194187554388,
                4.2427975788035107e-16
            ],
            [
                -0.7836116248912243,
                -0.7836116248912243,
                3.0001109391738274e-16
            ]
        ],
        "cv_weights": [
            1.0,
            1.0,
            1.0,
            1.0,
            1.0,
            1.0,
            1.0,
            1.0,
            1.0,
            1.0,
            1.0
        ],
        "knots": [
            -2.0,
            -1.0,
            0.0,
            1.0,
            2.0,
            3.0,
            4.0,
            5.0,
            6.0,
            7.0,
            8.0,
            9.0,
            10.0
        ]
    },
    "nurbsCircleShape3": {
        "degree": 3,
        "form": 2,
        "cv_positions": [
            [
                -2.735965365208252e-15,
                -0.7836116248912238,
                0.783611624891225
            ],
            [
                -5.345650568994954e-15,
                -1.108194187554388,
                -1.2643170607829336e-16
            ],
            [
                -4.823926169171859e-15,
                -0.7836116248912243,
                -0.7836116248912243
            ],
            [
                -1.4764112433343822e-15,
                -3.21126950723723e-16,
                -1.108194187554388
            ],
            [
                2.7359653652082536e-15,
                0.783611624891224,
                -0.7836116248912245
            ],
            [
                5.345650568994954e-15,
                1.1081941875543881,
                -3.3392053635905185e-16
            ],
            [
                4.8239261691718595e-15,
                0.7836116248912244,
                0.7836116248912238
            ],
            [
                1.4764112433343835e-15,
                5.952132599280585e-16,
                1.108194187554388
            ],
            [
                -2.735965365208252e-15,
                -0.7836116248912238,
                0.783611624891225
            ],
            [
                -5.345650568994954e-15,
                -1.108194187554388,
                -1.2643170607829336e-16
            ],
            [
                -4.823926169171859e-15,
                -0.7836116248912243,
                -0.7836116248912243
            ]
        ],
        "cv_weights": [
            1.0,
            1.0,
            1.0,
            1.0,
            1.0,
            1.0,
            1.0,
            1.0,
            1.0,
            1.0,
            1.0
        ],
        "knots": [
            -2.0,
            -1.0,
            0.0,
            1.0,
            2.0,
            3.0,
            4.0,
            5.0,
            6.0,
            7.0,
            8.0,
            9.0,
            10.0
        ]
    }
}